digraph Tree {
node [shape=box] ;
0 [label="X[0] <= 1339.0\ngini = 0.171\nsamples = 499\nvalue = [452, 47]"] ;
1 [label="X[7] <= 4.5\ngini = 0.143\nsamples = 489\nvalue = [451, 38]"] ;
0 -> 1 [labeldistance=2.5, labelangle=45, headlabel="True"] ;
2 [label="X[10] <= 7.5\ngini = 0.124\nsamples = 483\nvalue = [451, 32]"] ;
1 -> 2 ;
3 [label="X[12] <= 10.5\ngini = 0.108\nsamples = 473\nvalue = [446, 27]"] ;
2 -> 3 ;
4 [label="X[0] <= 941.5\ngini = 0.097\nsamples = 469\nvalue = [445, 24]"] ;
3 -> 4 ;
5 [label="X[9] <= 0.5\ngini = 0.078\nsamples = 444\nvalue = [426, 18]"] ;
4 -> 5 ;
6 [label="X[5] <= 4.5\ngini = 0.074\nsamples = 443\nvalue = [426, 17]"] ;
5 -> 6 ;
7 [label="X[0] <= 191.5\ngini = 0.06\nsamples = 417\nvalue = [404, 13]"] ;
6 -> 7 ;
8 [label="gini = 0.0\nsamples = 150\nvalue = [150, 0]"] ;
7 -> 8 ;
9 [label="X[0] <= 196.0\ngini = 0.093\nsamples = 267\nvalue = [254, 13]"] ;
7 -> 9 ;
10 [label="X[5] <= 1.0\ngini = 0.48\nsamples = 5\nvalue = [3, 2]"] ;
9 -> 10 ;
11 [label="gini = 0.0\nsamples = 2\nvalue = [2, 0]"] ;
10 -> 11 ;
12 [label="X[11] <= 26.0\ngini = 0.444\nsamples = 3\nvalue = [1, 2]"] ;
10 -> 12 ;
13 [label="gini = 0.0\nsamples = 1\nvalue = [1, 0]"] ;
12 -> 13 ;
14 [label="gini = 0.0\nsamples = 2\nvalue = [0, 2]"] ;
12 -> 14 ;
15 [label="X[11] <= 11.5\ngini = 0.08\nsamples = 262\nvalue = [251, 11]"] ;
9 -> 15 ;
16 [label="X[7] <= 1.0\ngini = 0.5\nsamples = 2\nvalue = [1, 1]"] ;
15 -> 16 ;
17 [label="gini = 0.0\nsamples = 1\nvalue = [0, 1]"] ;
16 -> 17 ;
18 [label="gini = 0.0\nsamples = 1\nvalue = [1, 0]"] ;
16 -> 18 ;
19 [label="X[12] <= 7.5\ngini = 0.074\nsamples = 260\nvalue = [250, 10]"] ;
15 -> 19 ;
20 [label="X[8] <= 0.5\ngini = 0.062\nsamples = 250\nvalue = [242, 8]"] ;
19 -> 20 ;
21 [label="X[0] <= 251.5\ngini = 0.039\nsamples = 203\nvalue = [199, 4]"] ;
20 -> 21 ;
22 [label="X[0] <= 246.0\ngini = 0.108\nsamples = 35\nvalue = [33, 2]"] ;
21 -> 22 ;
23 [label="X[7] <= 2.5\ngini = 0.059\nsamples = 33\nvalue = [32, 1]"] ;
22 -> 23 ;
24 [label="gini = 0.0\nsamples = 28\nvalue = [28, 0]"] ;
23 -> 24 ;
25 [label="X[0] <= 220.5\ngini = 0.32\nsamples = 5\nvalue = [4, 1]"] ;
23 -> 25 ;
26 [label="gini = 0.0\nsamples = 4\nvalue = [4, 0]"] ;
25 -> 26 ;
27 [label="gini = 0.0\nsamples = 1\nvalue = [0, 1]"] ;
25 -> 27 ;
28 [label="X[1] <= 1.5\ngini = 0.5\nsamples = 2\nvalue = [1, 1]"] ;
22 -> 28 ;
29 [label="gini = 0.0\nsamples = 1\nvalue = [1, 0]"] ;
28 -> 29 ;
30 [label="gini = 0.0\nsamples = 1\nvalue = [0, 1]"] ;
28 -> 30 ;
31 [label="X[0] <= 694.0\ngini = 0.024\nsamples = 168\nvalue = [166, 2]"] ;
21 -> 31 ;
32 [label="X[11] <= 16.5\ngini = 0.013\nsamples = 151\nvalue = [150, 1]"] ;
31 -> 32 ;
33 [label="X[0] <= 359.5\ngini = 0.08\nsamples = 24\nvalue = [23, 1]"] ;
32 -> 33 ;
34 [label="X[5] <= 2.5\ngini = 0.375\nsamples = 4\nvalue = [3, 1]"] ;
33 -> 34 ;
35 [label="gini = 0.0\nsamples = 3\nvalue = [3, 0]"] ;
34 -> 35 ;
36 [label="gini = 0.0\nsamples = 1\nvalue = [0, 1]"] ;
34 -> 36 ;
37 [label="gini = 0.0\nsamples = 20\nvalue = [20, 0]"] ;
33 -> 37 ;
38 [label="gini = 0.0\nsamples = 127\nvalue = [127, 0]"] ;
32 -> 38 ;
39 [label="X[0] <= 720.0\ngini = 0.111\nsamples = 17\nvalue = [16, 1]"] ;
31 -> 39 ;
40 [label="gini = 0.0\nsamples = 1\nvalue = [0, 1]"] ;
39 -> 40 ;
41 [label="gini = 0.0\nsamples = 16\nvalue = [16, 0]"] ;
39 -> 41 ;
42 [label="X[5] <= 1.5\ngini = 0.156\nsamples = 47\nvalue = [43, 4]"] ;
20 -> 42 ;
43 [label="X[0] <= 449.5\ngini = 0.444\nsamples = 6\nvalue = [4, 2]"] ;
42 -> 43 ;
44 [label="gini = 0.0\nsamples = 4\nvalue = [4, 0]"] ;
43 -> 44 ;
45 [label="gini = 0.0\nsamples = 2\nvalue = [0, 2]"] ;
43 -> 45 ;
46 [label="X[12] <= 4.5\ngini = 0.093\nsamples = 41\nvalue = [39, 2]"] ;
42 -> 46 ;
47 [label="X[8] <= 1.5\ngini = 0.172\nsamples = 21\nvalue = [19, 2]"] ;
46 -> 47 ;
48 [label="X[11] <= 39.5\ngini = 0.298\nsamples = 11\nvalue = [9, 2]"] ;
47 -> 48 ;
49 [label="gini = 0.0\nsamples = 5\nvalue = [5, 0]"] ;
48 -> 49 ;
50 [label="X[4] <= 1.5\ngini = 0.444\nsamples = 6\nvalue = [4, 2]"] ;
48 -> 50 ;
51 [label="X[0] <= 274.5\ngini = 0.5\nsamples = 4\nvalue = [2, 2]"] ;
50 -> 51 ;
52 [label="gini = 0.0\nsamples = 2\nvalue = [2, 0]"] ;
51 -> 52 ;
53 [label="gini = 0.0\nsamples = 2\nvalue = [0, 2]"] ;
51 -> 53 ;
54 [label="gini = 0.0\nsamples = 2\nvalue = [2, 0]"] ;
50 -> 54 ;
55 [label="gini = 0.0\nsamples = 10\nvalue = [10, 0]"] ;
47 -> 55 ;
56 [label="gini = 0.0\nsamples = 20\nvalue = [20, 0]"] ;
46 -> 56 ;
57 [label="X[0] <= 319.5\ngini = 0.32\nsamples = 10\nvalue = [8, 2]"] ;
19 -> 57 ;
58 [label="gini = 0.0\nsamples = 2\nvalue = [0, 2]"] ;
57 -> 58 ;
59 [label="gini = 0.0\nsamples = 8\nvalue = [8, 0]"] ;
57 -> 59 ;
60 [label="X[1] <= 3.5\ngini = 0.26\nsamples = 26\nvalue = [22, 4]"] ;
6 -> 60 ;
61 [label="X[11] <= 35.0\ngini = 0.153\nsamples = 24\nvalue = [22, 2]"] ;
60 -> 61 ;
62 [label="X[10] <= 3.5\ngini = 0.375\nsamples = 8\nvalue = [6, 2]"] ;
61 -> 62 ;
63 [label="gini = 0.0\nsamples = 5\nvalue = [5, 0]"] ;
62 -> 63 ;
64 [label="X[0] <= 918.5\ngini = 0.444\nsamples = 3\nvalue = [1, 2]"] ;
62 -> 64 ;
65 [label="gini = 0.0\nsamples = 2\nvalue = [0, 2]"] ;
64 -> 65 ;
66 [label="gini = 0.0\nsamples = 1\nvalue = [1, 0]"] ;
64 -> 66 ;
67 [label="gini = 0.0\nsamples = 16\nvalue = [16, 0]"] ;
61 -> 67 ;
68 [label="gini = 0.0\nsamples = 2\nvalue = [0, 2]"] ;
60 -> 68 ;
69 [label="gini = 0.0\nsamples = 1\nvalue = [0, 1]"] ;
5 -> 69 ;
70 [label="X[0] <= 950.0\ngini = 0.365\nsamples = 25\nvalue = [19, 6]"] ;
4 -> 70 ;
71 [label="gini = 0.0\nsamples = 2\nvalue = [0, 2]"] ;
70 -> 71 ;
72 [label="X[11] <= 32.0\ngini = 0.287\nsamples = 23\nvalue = [19, 4]"] ;
70 -> 72 ;
73 [label="gini = 0.0\nsamples = 13\nvalue = [13, 0]"] ;
72 -> 73 ;
74 [label="X[12] <= 5.5\ngini = 0.48\nsamples = 10\nvalue = [6, 4]"] ;
72 -> 74 ;
75 [label="X[5] <= 2.5\ngini = 0.444\nsamples = 6\nvalue = [2, 4]"] ;
74 -> 75 ;
76 [label="gini = 0.0\nsamples = 3\nvalue = [0, 3]"] ;
75 -> 76 ;
77 [label="X[11] <= 38.0\ngini = 0.444\nsamples = 3\nvalue = [2, 1]"] ;
75 -> 77 ;
78 [label="gini = 0.0\nsamples = 1\nvalue = [0, 1]"] ;
77 -> 78 ;
79 [label="gini = 0.0\nsamples = 2\nvalue = [2, 0]"] ;
77 -> 79 ;
80 [label="gini = 0.0\nsamples = 4\nvalue = [4, 0]"] ;
74 -> 80 ;
81 [label="X[4] <= 0.5\ngini = 0.375\nsamples = 4\nvalue = [1, 3]"] ;
3 -> 81 ;
82 [label="gini = 0.0\nsamples = 1\nvalue = [1, 0]"] ;
81 -> 82 ;
83 [label="gini = 0.0\nsamples = 3\nvalue = [0, 3]"] ;
81 -> 83 ;
84 [label="X[2] <= 0.5\ngini = 0.5\nsamples = 10\nvalue = [5, 5]"] ;
2 -> 84 ;
85 [label="gini = 0.0\nsamples = 4\nvalue = [0, 4]"] ;
84 -> 85 ;
86 [label="X[2] <= 6.0\ngini = 0.278\nsamples = 6\nvalue = [5, 1]"] ;
84 -> 86 ;
87 [label="gini = 0.0\nsamples = 5\nvalue = [5, 0]"] ;
86 -> 87 ;
88 [label="gini = 0.0\nsamples = 1\nvalue = [0, 1]"] ;
86 -> 88 ;
89 [label="gini = 0.0\nsamples = 6\nvalue = [0, 6]"] ;
1 -> 89 ;
90 [label="X[0] <= 2463.5\ngini = 0.18\nsamples = 10\nvalue = [1, 9]"] ;
0 -> 90 [labeldistance=2.5, labelangle=-45, headlabel="False"] ;
91 [label="gini = 0.0\nsamples = 8\nvalue = [0, 8]"] ;
90 -> 91 ;
92 [label="X[4] <= 1.0\ngini = 0.5\nsamples = 2\nvalue = [1, 1]"] ;
90 -> 92 ;
93 [label="gini = 0.0\nsamples = 1\nvalue = [0, 1]"] ;
92 -> 93 ;
94 [label="gini = 0.0\nsamples = 1\nvalue = [1, 0]"] ;
92 -> 94 ;
}
